<?xml version="1.0"?>
<opencv_storage>
<stage5>
  <maxWeakCount>5</maxWeakCount>
  <stageThreshold>-2.0879452228546143e+00</stageThreshold>
  <weakClassifiers>
    <_>
      <internalNodes>
        0 -1 375 -6815745 -2403849 -40634369 -2535085 -15991813
        -1141135105 -611599361 -49665</internalNodes>
      <leafValues>
        -9.6174538135528564e-01 -2.0312500000000000e-01</leafValues></_>
    <_>
      <internalNodes>
        0 -1 2263 2146959347 -1058820 -606085291 -682361857 -678434945
        -1616905894 -202906625 -525441</internalNodes>
      <leafValues>
        -8.7311726808547974e-01 1.3737377524375916e-01</leafValues></_>
    <_>
      <internalNodes>
        0 -1 2852 -690126978 -202394121 -247343777 -1084588041 -96506630
        -99877969 -136073497 -135528601</internalNodes>
      <leafValues>
        -8.5903394222259521e-01 2.8651404380798340e-01</leafValues></_>
    <_>
      <internalNodes>
        0 -1 1113 -2099206 -1174471688 -142681857 2145050570 -140777220
        -1091570177 -68167448 1542518271</internalNodes>
      <leafValues>
        -9.1111654043197632e-01 3.6183330416679382e-01</leafValues></_>
    <_>
      <internalNodes>
        0 -1 2626 -67162180 -134226178 -653262852 -8195 -1549329580
        -72125633 -3425284 -1153</internalNodes>
      <leafValues>
        -9.2700839042663574e-01 3.7151980400085449e-01</leafValues></_></weakClassifiers></stage5>
</opencv_storage>
