<?xml version="1.0"?>
<opencv_storage>
<stage3>
  <maxWeakCount>4</maxWeakCount>
  <stageThreshold>-2.3691318035125732e+00</stageThreshold>
  <weakClassifiers>
    <_>
      <internalNodes>
        0 -1 46185 -1 -41945321 -216014369 -12615753 864492511
        -611364353 -1025 -1</internalNodes>
      <leafValues>
        -9.6021270751953125e-01 3.1428572535514832e-01</leafValues></_>
    <_>
      <internalNodes>
        0 -1 31481 -1 -3592 1993867197 -202711638 -1 -1082465345
        -70272008 -541197313</internalNodes>
      <leafValues>
        -9.1626060009002686e-01 1.4657774567604065e-01</leafValues></_>
    <_>
      <internalNodes>
        0 -1 19127 -4456513 -1073793065 -608439841 1002316788 -1048654
        -1191478 2075852731 -1078083596</internalNodes>
      <leafValues>
        -8.7770962715148926e-01 3.9910957217216492e-01</leafValues></_>
    <_>
      <internalNodes>
        0 -1 145075 -22020113 826241407 -5776129 -279776546 -71303659
        -1073747129 -63377881 -23923969</internalNodes>
      <leafValues>
        -8.9176791906356812e-01 5.2197295427322388e-01</leafValues></_></weakClassifiers></stage3>
</opencv_storage>
